svm_type c_svc
kernel_type linear
nr_class 3
total_sv 32
rho -3.1661881181461853 -3.167200078878098 -2.482461419041679
label 0 1 2
probA -2.433670144441473 -3.354026368391361 -2.878797238114313
probB 0.13143303028162753 -0.40065214484272066 0.09012563281643225
nr_sv 9 10 13
SV
4.0 0.0 0:0.40424585226178167 1:0.2549838606119156 
0.0 4.0 0:0.3089075006842613 1:0.4312584089636803 
4.0 4.0 0:0.4544027522802353 1:0.4322307247519493 
0.0 4.0 0:0.384736910417676 1:0.34044920682907104 
0.0 4.0 0:0.40018119253218176 1:0.3870099853873253 
1.7920220599864127 4.0 0:0.4032507382780314 1:0.36371658301353454 
4.0 4.0 0:0.4260398008823395 1:0.40725489977002144 
4.0 4.0 0:0.41054385271668437 1:0.4354233601242304 
0.0 4.0 0:0.39247092479467394 1:0.43849518421292305 
-4.0 0.0 0:0.7353675991296769 1:0.3135853312313557 
-4.0 4.0 0:0.7449953921139241 1:0.3676825349032879 
-1.7920220599864127 0.0 0:0.7518943503499032 1:0.2962811485528946 
-0.0 4.0 0:0.8694261491298676 1:0.40512712052464483 
-0.0 0.5868649162172642 0:0.8381485261023045 1:0.38060973820090294 
-0.0 4.0 0:0.8046487338840962 1:0.38901408153772354 
-0.0 4.0 0:0.7795120874494315 1:0.39471228164434435 
-4.0 4.0 0:0.7474325721263886 1:0.38004342298209665 
-4.0 4.0 0:0.7292718381285668 1:0.41555685721337793 
-0.0 4.0 0:0.802661454319954 1:0.4050773911550641 
-4.0 -0.0 0:0.1324974607229233 1:0.5521132016181945 
-4.0 -0.0 0:0.1541016857624054 1:0.5862619042396545 
-4.0 -0.0 0:0.1641739462018013 1:0.6213641694188118 
-4.0 -3.1877977926721845 0:0.2668240403234958 1:0.575785497367382 
-4.0 -0.0 0:0.2378194287121296 1:0.6437283659726382 
-0.6529224310624568 -0.0 0:0.19781762021780014 1:0.6450535766482354 
-4.0 -4.0 0:0.7857015322595835 1:0.6115700749158859 
-0.0 -1.3990671235450791 0:0.8224400998651982 1:0.6797505513355135 
-4.0 -4.0 0:0.8084689461141825 1:0.6146748766899109 
-0.0 -4.0 0:0.7969430267289281 1:0.6401688723564148 
-3.347077568937543 -4.0 0:0.7700991498231888 1:0.6287046277225018 
-0.0 -4.0 0:0.8245934891402722 1:0.634593361735344 
-0.0 -4.0 0:0.8054186886101962 1:0.6419247911125422 
