svm_type c_svc
kernel_type linear
nr_class 4
total_sv 60
rho -5.334191899086636 -4.529951417356961 -5.730778115397327 -8.156336743620713 -4.13157334921413 2.751216340750998
label 0 1 2 3
probA -1.7538740159422606 -1.8208030099531451 -1.7361247010123806 -1.0786860775876492 -1.4371522128150036 -1.3383277095376147
probB -0.21900968710658694 -0.18309831821150005 -0.1843488561115148 -0.09321878006650118 -0.29304246708012677 0.008281520845566555
nr_sv 10 26 16 8
SV
64.0 0.0 0.0 0:0.24837087166309357 1:0.14547424018383026 
26.06547077475564 0.0 0.0 0:0.24837316534295678 1:0.18826628029346465 
64.0 50.361358432158724 0.0 0:0.3195797517299652 1:0.23879928290843963 
64.0 0.0 0.0 0:0.273953043282032 1:0.2592981353402138 
64.0 0.0 0.0 0:0.2769139063358307 1:0.250803578319028 
64.0 0.0 0.0 0:0.2835840505361557 1:0.25043514370918274 
64.0 0.0 0.0 0:0.25888384718447927 1:0.2727193862199784 
0.0 0.0 64.0 0:0.26261419653892515 1:0.353169596195221 
0.0 0.0 64.0 0:0.20208569705486296 1:0.3316649287939072 
0.0 0.0 59.740995733150726 0:0.1455470335483551 1:0.31888485103845593 
-64.0 0.0 0.0 0:0.32487184064835306 1:0.12056678742170333 
-64.0 0.0 0.0 0:0.2859461424052715 1:0.22849827006459236 
-64.0 0.0 0.0 0:0.3441893124654889 1:0.18084866799414157 
-15.959947779348921 0.0 0.0 0:0.3628751831203699 1:0.2737598517537117 
-64.0 0.0 0.0 0:0.30122958052158355 1:0.19983323991298674 
-0.0 64.0 0.0 0:0.4812188932299614 1:0.0707414624094963 
-64.0 0.0 0.0 0:0.3366365407705307 1:0.19270705446600914 
-1.2464400216649574 0.0 0.0 0:0.35171920415759084 1:0.18097017243504526 
-0.0 64.0 0.0 0:0.5008962137699128 1:0.2356600662320852 
-0.0 64.0 0.0 0:0.49339692506194116 1:0.2662654126435518 
-0.0 64.0 0.0 0:0.5024254075735808 1:0.2846327206492424 
-0.0 64.0 0.0 0:0.6043126268982888 1:0.3126982661522925 
-0.0 64.0 0.0 0:0.6425124605298043 1:0.22513571679592134 
-0.0 64.0 0.0 0:0.5286442228555679 1:0.3974257732927799 
-0.0 64.0 0.0 0:0.6861562018394469 1:0.3857316082715988 
-64.0 0.0 64.0 0:0.3194111766815185 1:0.40534452483057976 
-0.0 64.0 0.0 0:0.5967150018215179 1:0.40796102449297905 
-0.0 64.0 29.653206185550594 0:0.5230935339108109 1:0.4023383854329586 
-0.0 0.0 64.0 0:0.4189896202087402 1:0.36483524325303734 
-0.0 64.0 0.0 0:0.5437509954204074 1:0.3933319415897131 
-0.0 64.0 0.0 0:0.5160530306100845 1:0.3002477395534515 
-8.85908297374176 0.0 64.0 0:0.38082696092128754 1:0.42365629225969315 
-0.0 47.12557291653206 0.0 0:0.5005488349199294 1:0.3783841338008642 
-0.0 64.0 0.0 0:0.6196808151304721 1:0.3981562239676714 
-0.0 64.0 0.0 0:0.5660851444453001 1:0.3789100598730147 
-0.0 0.0 64.0 0:0.38223486757278435 1:0.4283884267508984 
-38.66680183911939 -64.0 0.0 0:0.5218093184232712 1:0.23435762271285057 
-0.0 -64.0 0.0 0:0.5526224443912506 1:0.1777560657635331 
-0.0 -3.2193201633349284 0.0 0:0.6181862904727459 1:0.157773573808372 
-0.0 -64.0 0.0 0:0.5382221663594245 1:0.2844030152261257 
-0.0 -64.0 0.0 0:0.6128820151686668 1:0.25135225884616375 
-0.0 -64.0 0.0 0:0.5766791250407696 1:0.11224637284874914 
-0.0 -64.0 9.617025504074395 0:0.5409681386351586 1:0.35085902526974677 
-0.0 -64.0 0.0 0:0.5723785460591316 1:0.2594970621645917 
-11.694556593039334 -64.0 64.0 0:0.4994232074022293 1:0.38200526297092435 
-0.0 -64.0 0.0 0:0.539139822781086 1:0.2601055820286274 
-0.0 -64.0 0.0 0:0.5566099209189415 1:0.23513611555099487 
-0.0 -64.0 0.0 0:0.6305117177069187 1:0.3953592125326395 
-0.0 -64.0 17.28501814961576 0:0.6269113182127476 1:0.5284677132964134 
-0.0 -64.0 0.0 0:0.6251367100179195 1:0.2861170294880867 
-0.0 -43.90625275319713 64.0 0:0.6473625822961331 1:0.5870693904161453 
-0.0 -64.0 64.0 0:0.54051908826828 1:0.5534997214376925 
-23.210488884669388 -45.2562382686477 -0.0 0:0.3372154702544212 1:0.4592740887403488 
-36.53050684848133 -0.0 -0.0 0:0.09298535549640657 1:0.44885336704552176 
-64.0 -64.0 -0.0 0:0.16235388517379762 1:0.38039431005716323 
-0.0 -0.0 -26.902043653690153 0:0.4226735624670982 1:0.515261885523796 
-0.0 -0.0 -64.0 0:0.4636244913339615 1:0.5119173849001526 
-64.0 -64.0 -0.0 0:0.25271477791666985 1:0.4157553628087044 
-0.0 -64.0 -64.0 0:0.5564437764286996 1:0.5124117156118154 
-0.0 -48.396967916902895 -64.0 0:0.5822781376838684 1:0.5535108700208367 
