svm_type c_svc
kernel_type linear
nr_class 7
total_sv 268
rho -5.9300914561155835 -8.129670415991155 -8.714023482874627 -7.1769151380137535 -4.889276536482991 -3.72217767306365 0.09982554132315125 0.1574385347022219 1.059167897888321 -12.067892076352969 -12.406884313512137 -2.2644467234784287 -3.49225333012353 -2.171439612715211 -1.901561152443445 -10.790584312892857 -4.156239674567515 -3.3337934701662584 -12.800678087138905 -6.084663815681064 -20.84691719021617
label 0 1 2 3 4 5 6
probA -2.4569135960170945 -2.4552748864814244 -2.5632681772338235 -2.858585129995781 -3.3739205204292366 -3.686321873215421 -3.2355558059467677 -3.174343497006903 -2.9846527051460368 -2.568648432205643 -2.9614563057779155 -3.178986613178571 -3.3151060664899723 -3.969698136169947 -4.093921589237046 -3.491081235563329 -3.680078261032906 -3.8739809659797872 -3.722662140596605 -3.7170635052572885 -3.6189401972308417
probB -0.03637215740935024 -0.23832577844546876 -0.2492037370432301 0.016764534598415773 0.5122858298110465 0.5921722316987919 -0.14033006466736953 -0.0194074499980294 0.200845266769079 0.032800634080052966 0.36402396997254544 0.05269112103846494 0.5114117852556045 0.7710291536220756 0.6650764816193887 -0.09616710755455055 0.8336684062621063 0.6815314959362615 0.1931293547229129 0.19364328133909833 0.17749946502697697
nr_sv 30 28 26 39 43 67 35
SV
16.0 0.0 0.0 0.0 0.0 0.0 0:0.3981339998543263 1:0.12169333845376967 
16.0 0.0 0.0 0.0 0.0 0.0 0:0.41464741277694706 1:0.12685593217611313 
16.0 0.0 0.0 0.0 0.0 0.0 0:0.3879466824531555 1:0.1392785061849281 
8.883892143136778 0.0 0.0 0.0 0.0 0.0 0:0.37014755582809444 1:0.13288862146437166 
16.0 0.0 0.0 0.0 0.0 0.0 0:0.4164791499376297 1:0.2935724139213562 
16.0 0.0 0.0 0.0 0.0 0.0 0:0.43403123784065245 1:0.30354470610618595 
16.0 0.0 0.0 0.0 0.0 0.0 0:0.4206364124417305 1:0.3014774709939957 
16.0 0.0 0.0 0.0 0.0 1.55661674936059 0:0.4635520629882812 1:0.33911721110343934 
16.0 0.0 0.0 0.0 5.121983451399393 9.851627285878955 0:0.44197024929523465 1:0.3780577942728996 
0.0 0.0 0.0 16.0 16.0 0.0 0:0.4208127148747444 1:0.4074592858552933 
10.259760499556755 0.0 0.0 0.0 0.0 0.0 0:0.4318212840557098 1:0.38609711396275087 
16.0 0.0 0.0 0.0 0.0 0.0 0:0.4515800154209137 1:0.35402363538742065 
0.0 0.0 0.0 16.0 0.0 0.0 0:0.39461175650358205 1:0.44181892871856693 
0.0 0.0 0.0 11.76383188121407 0.0 0.0 0:0.3749701517224312 1:0.4448214158415794 
0.0 0.0 14.494151482223874 16.0 1.4799317020321143 0.0 0:0.3847911459207535 1:0.45522222518920896 
0.0 0.0 16.0 0.0 0.0 0.0 0:0.3130072142779827 1:0.4988470643758774 
0.0 0.0 16.0 0.0 0.0 0.0 0:0.327590719461441 1:0.47358824461698534 
0.0 16.0 16.0 0.0 0.0 0.0 0:0.25673602271080015 1:0.5030350416898728 
0.0 0.0 16.0 0.0 0.0 0.0 0:0.28935405135154724 1:0.49074948430061344 
0.0 0.0 16.0 0.0 0.0 0.0 0:0.278551349401474 1:0.49361836165189743 
0.0 16.0 0.0 0.0 0.0 0.0 0:0.2062971315383911 1:0.4866002976894379 
0.0 16.0 0.0 0.0 0.0 0.0 0:0.20248891197144986 1:0.49438026249408723 
0.0 13.403926120514305 0.0 0.0 0.0 0.0 0:0.2381391750574112 1:0.48928787410259245 
0.0 16.0 0.0 0.0 0.0 0.0 0:0.17916009542346 1:0.48830412328243256 
0.0 16.0 0.0 0.0 0.0 0.0 0:0.13373920321464539 1:0.47765129134058953 
0.0 16.0 16.0 0.0 0.0 0.0 0:0.16712803095579148 1:0.5290091753005981 
0.0 16.0 0.0 0.0 0.0 0.0 0:0.17320900410413742 1:0.4996596723794937 
0.0 16.0 0.0 0.0 0.0 0.0 0:0.17712596273422243 1:0.4926133811473846 
0.0 16.0 16.0 0.0 0.0 0.0 0:0.18558982220292092 1:0.5456487238407135 
0.0 2.5960738794856977 0.0 0.0 0.0 0.0 0:0.15401131027936935 1:0.4780435249209404 
-16.0 0.0 0.0 0.0 0.0 0.0 0:0.49934275525808336 1:0.2056522478349507 
-16.0 0.0 0.0 0.0 0.0 0.0 0:0.5039830778092146 1:0.2184686794877052 
-16.0 0.0 0.0 0.0 0.0 0.0 0:0.4905894619226456 1:0.22769317626953126 
-16.0 0.0 0.0 0.0 0.0 0.0 0:0.48133006107807164 1:0.20291302651166915 
-16.0 0.0 0.0 0.0 0.0 0.0 0:0.5041851001977921 1:0.226854844763875 
-16.0 0.0 0.0 0.0 0.0 0.0 0:0.5125977013409138 1:0.22020727992057798 
-16.0 0.0 0.0 0.0 0.0 0.0 0:0.5240780385807157 1:0.22297171354293824 
-3.1436526426935343 0.0 0.0 0.0 0.0 0.0 0:0.5289902578666806 1:0.22252365648746492 
-16.0 0.0 0.0 0.0 0.0 0.0 0:0.5341277324557305 1:0.24459393322467804 
-16.0 0.0 0.0 0.0 0.0 0.0 0:0.5365464197397233 1:0.2832205295562744 
-16.0 12.582200345173625 1.7147924444707572 16.0 0.0 0.0 0:0.532955470085144 1:0.36043197810649874 
-0.0 0.0 4.7868077473500215 16.0 16.0 0.0 0:0.651484841555357 1:0.5008952558040619 
-0.0 0.0 0.0 0.0 16.0 16.0 0:0.7063847383260727 1:0.49532317221164707 
-0.0 0.0 0.0 16.0 4.8080178718302005 0.0 0:0.645054862856865 1:0.48131654113531114 
-0.0 0.0 0.0 0.0 16.0 0.0 0:0.6607565480023623 1:0.48427921533584595 
-0.0 0.0 0.0 0.0 16.0 16.0 0:0.7009867477416992 1:0.4900175958871842 
-0.0 0.0 0.0 0.0 16.0 4.428086664440858 0:0.7064840898513794 1:0.47558845523744825 
-0.0 0.0 0.0 0.0 16.0 0.0 0:0.6631275215744972 1:0.4947565421462059 
-0.0 0.0 16.0 16.0 16.0 0.0 0:0.6461015665531158 1:0.5107447981834411 
-0.0 0.0 0.0 0.0 16.0 0.0 0:0.6951434699892998 1:0.48053649459034203 
-0.0 0.0 0.0 3.2143777372649973 0.0 0.0 0:0.6379508329629897 1:0.46811049729585646 
-0.0 0.0 0.0 0.0 16.0 16.0 0:0.7084216250181198 1:0.5058307975530625 
-0.0 0.0 0.0 0.0 16.0 16.0 0:0.6974966841340065 1:0.49035448804497717 
-0.0 0.0 0.0 16.0 16.0 0.0 0:0.659996754169464 1:0.5029021471738815 
-0.0 0.0 0.0 0.0 16.0 0.0 0:0.6863229873180389 1:0.4932707786560059 
-0.0 0.0 0.0 0.0 16.0 16.0 0:0.7184827955961227 1:0.4982321739196778 
-0.0 0.0 0.0 0.0 16.0 0.0 0:0.6856686298404819 1:0.4882272779941559 
-0.0 0.0 0.0 0.0 16.0 16.0 0:0.7243870506882667 1:0.4823500573635101 
-16.0 -0.0 0.0 0.0 0.0 0.0 0:0.20193960791826246 1:0.5924763400107622 
-16.0 -12.582200345173629 16.0 0.0 0.0 0.0 0:0.21043379926681519 1:0.5948130841553212 
-16.0 -0.0 0.0 0.0 0.0 0.0 0:0.20312779366970063 1:0.6024096393585205 
-16.0 -0.0 0.0 0.0 0.0 0.0 0:0.19613136386871338 1:0.5944657571613788 
-16.0 -0.0 0.0 0.0 0.0 0.0 0:0.18777705824375152 1:0.5934866409003735 
-16.0 -0.0 0.0 0.0 0.0 0.0 0:0.18038752482831477 1:0.5972032308578492 
-16.0 -0.0 0.0 0.0 0.0 0.0 0:0.1583891189098358 1:0.6046826994419098 
-16.0 -0.0 0.0 0.0 0.0 0.0 0:0.15277462148666382 1:0.5916306579113007 
-16.0 -0.0 0.0 0.0 0.0 0.0 0:0.14584520648419858 1:0.603204762339592 
-16.0 -0.0 0.0 0.0 0.0 0.0 0:0.13896378326416017 1:0.6040787762403488 
-0.0 -0.0 7.399140605275521 0.0 0.0 0.0 0:0.2320492720603943 1:0.7133171957731247 
-0.0 -0.0 16.0 0.0 0.0 0.0 0:0.23302581408619882 1:0.7156733900308608 
-0.0 -0.0 16.0 0.0 0.0 0.0 0:0.2357887045033276 1:0.7154314401745796 
-0.0 -0.0 16.0 0.0 0.0 0.0 0:0.23235652446746824 1:0.7096807715296746 
-0.0 -0.0 16.0 0.0 0.0 0.0 0:0.23874958768486976 1:0.7144119694828988 
-0.0 -0.0 16.0 0.0 0.0 0.0 0:0.2448315508365631 1:0.7156931713223458 
-0.0 -0.0 16.0 0.0 0.0 0.0 0:0.2452445514202118 1:0.7164343339204788 
-0.0 -0.0 16.0 16.0 0.0 0.0 0:0.2475657912492752 1:0.699812731742859 
-0.0 -0.0 16.0 0.0 0.0 0.0 0:0.23336818063259124 1:0.7102722058258951 
-0.0 -0.0 16.0 0.0 0.0 0.0 0:0.23769718343019486 1:0.7034468060731888 
-0.0 -0.0 16.0 16.0 11.920589986955509 6.66288695879465 0:0.24757651233673095 1:0.7073581504821778 
-0.0 -0.0 16.0 0.0 0.0 0.0 0:0.2402805087864399 1:0.7059248313307762 
-0.0 -0.0 16.0 0.0 0.0 0.0 0:0.24384558969736098 1:0.7057731968164443 
-0.0 -0.0 16.0 5.739868168080757 0.0 0.0 0:0.2460671471953392 1:0.7047600975632667 
-0.0 -0.0 16.0 0.0 0.0 0.0 0:0.23672289752960204 1:0.7085591889265924 
-0.0 -0.0 16.0 0.0 0.0 0.0 0:0.24385785588622091 1:0.7091081545501947 
-16.0 -0.0 -1.0947892945474424 0.0 0.0 0.0 0:0.3017644326686859 1:0.6029518973827362 
-16.0 -0.0 -0.0 0.0 0.0 0.0 0:0.30642623859643936 1:0.59972925812006 
-16.0 -0.0 -0.0 0.0 0.0 0.0 0:0.30316895934939386 1:0.6017280027270318 
-16.0 -0.0 -0.0 0.0 0.0 0.0 0:0.30372549700737 1:0.6072169321775436 
-16.0 -0.0 -0.0 0.0 0.0 0.0 0:0.3044436303079128 1:0.5999179154634475 
-16.0 -0.0 -16.0 0.0 0.0 0.0 0:0.30172341454029084 1:0.6109402941167354 
-16.0 -0.0 -0.0 0.0 0.0 0.0 0:0.31028762328624726 1:0.6169938129186631 
-14.494151482223876 -0.0 -16.0 0.0 0.0 0.0 0:0.30133790987730025 1:0.6240694272518158 
-0.0 -0.0 -16.0 0.0 0.0 0.0 0:0.3023092871904373 1:0.6290760478377343 
-0.0 -0.0 -16.0 0.0 0.0 0.0 0:0.3071986001133919 1:0.6558867850899697 
-0.0 -0.0 -16.0 0.0 0.0 0.0 0:0.31200950759649276 1:0.6627607321739196 
-0.0 -0.0 -16.0 0.0 0.0 0.0 0:0.3146654176712036 1:0.6704654714465141 
-0.0 -0.0 -16.0 0.0 0.0 0.0 0:0.31403463792800906 1:0.6801216039061546 
-0.0 -0.0 -16.0 0.0 0.0 0.0 0:0.3170229005515576 1:0.681500212624669 
-0.0 -0.0 -16.0 0.0 0.0 0.0 0:0.32188554318249224 1:0.6894180402159691 
-0.0 -0.0 -16.0 0.0 0.0 0.0 0:0.3165596137046814 1:0.6993917411565781 
-0.0 -0.0 -6.304351310728075 0.0 0.0 0.0 0:0.3218896930217743 1:0.6867801892757416 
-0.0 -0.0 -16.0 0.0 0.0 0.0 0:0.3235181875228882 1:0.7143532873690128 
-0.0 -0.0 -16.0 0.0 0.0 0.0 0:0.3272975841760636 1:0.7137998646497726 
-0.0 -0.0 -16.0 0.0 0.0 0.0 0:0.329707102060318 1:0.7274778011441231 
-0.0 -0.0 -16.0 0.0 0.0 0.0 0:0.32586086678504944 1:0.7215075075626374 
-0.0 -0.0 -16.0 0.0 0.0 0.0 0:0.33238573372364044 1:0.7367648667097092 
-0.0 -0.0 -16.0 0.0 0.0 0.0 0:0.32924684476852417 1:0.7256432276964188 
-0.0 -0.0 -0.0 16.0 0.0 0.0 0:0.3917601425647736 1:0.6980500683188439 
-0.0 -0.0 -0.0 16.0 0.0 0.0 0:0.39293704608082775 1:0.6896970453858375 
-0.0 -0.0 -0.0 16.0 0.0 0.0 0:0.38885704582929614 1:0.7035763221979141 
-0.0 -0.0 -0.0 16.0 0.0 0.0 0:0.39465557213127617 1:0.6875881052017212 
-0.0 -0.0 -0.0 9.037597971828065 0.0 0.0 0:0.38781659197807317 1:0.69332703307271 
-0.0 -0.0 -0.0 16.0 0.0 0.0 0:0.4072499294281006 1:0.6955469810962677 
-0.0 -0.0 -0.0 16.0 0.0 0.0 0:0.39821434551477436 1:0.6909951213002204 
-0.0 -0.0 -0.0 16.0 0.0 0.0 0:0.41041540360450746 1:0.6898359805345535 
-0.0 -6.501600191820778 -0.0 16.0 0.0 0.0 0:0.41137619960308075 1:0.6848589530587197 
-0.0 -0.0 -0.0 16.0 1.6308136627099288 0.0 0:0.4146350150108337 1:0.6982915151119232 
-0.0 -0.0 -0.0 16.0 0.0 0.0 0:0.40997752502560614 1:0.6853794824704528 
-0.0 -0.0 -0.0 16.0 0.0 0.0 0:0.4043877276778221 1:0.6831383486092091 
-0.0 -0.0 -0.0 16.0 0.0 0.0 0:0.4112318242788315 1:0.6849214000534266 
-0.0 -0.0 -0.0 16.0 0.0 0.0 0:0.40479160767793654 1:0.6866143848001957 
-0.0 -0.0 -0.0 16.0 16.0 13.859671900293035 0:0.41588626039028165 1:0.6916660976409912 
-0.0 -16.0 -0.0 16.0 16.0 0.0 0:0.414827290892601 1:0.6877097570896149 
-16.0 -16.0 -0.0 -0.0 0.0 0.0 0:0.513587274134159 1:0.5703450090438128 
-16.0 -16.0 -0.0 -0.0 0.0 0.0 0:0.5126210685372353 1:0.562835533618927 
-11.76383188121407 -16.0 -0.0 -0.0 0.0 0.0 0:0.515259165737778 1:0.571851693764329 
-0.0 -16.0 -0.0 -0.0 0.0 0.0 0:0.5219763742685318 1:0.5730939798429608 
-16.0 -16.0 -0.0 -0.0 0.0 0.0 0:0.5150937192812562 1:0.5713410279154778 
-0.0 -3.2143777372649973 -0.0 -0.0 0.0 0.0 0:0.5226483719348908 1:0.5807483300566674 
-0.0 -0.0 -0.0 -16.0 0.0 0.0 0:0.5010039746761322 1:0.614502714574337 
-0.0 -0.0 -0.0 -9.037597971828067 0.0 0.0 0:0.49788147485256196 1:0.6387468358874321 
-0.0 -0.0 -0.0 -16.0 0.0 0.0 0:0.488429221868515 1:0.688174859881401 
-0.0 -0.0 -0.0 -16.0 0.0 0.0 0:0.485373574256897 1:0.6849622440338134 
-0.0 -0.0 -0.0 -16.0 0.0 0.0 0:0.480767872095108 1:0.6843738067150116 
-0.0 -0.0 -0.0 -16.0 0.0 0.0 0:0.48501253271102907 1:0.7094158542156219 
-0.0 -0.0 -0.0 -16.0 0.0 0.0 0:0.4822811253070831 1:0.7012862440943718 
-0.0 -0.0 -16.0 -16.0 0.0 0.0 0:0.47724722027778627 1:0.7016896617412567 
-0.0 -0.0 -0.0 -16.0 0.0 0.0 0:0.4853304386138916 1:0.7083860191702843 
-0.0 -0.0 -0.0 -16.0 0.0 0.0 0:0.4851656325086951 1:0.7088334566354751 
-0.0 -0.0 -5.739868168080757 -16.0 0.0 0.0 0:0.477437274813652 1:0.7239259702898562 
-0.0 -0.0 -0.0 -16.0 0.0 0.0 0:0.48038025802373885 1:0.7226710718870163 
-0.0 -0.0 -16.0 -16.0 0.0 0.0 0:0.47239005947113033 1:0.7319580721855163 
-0.0 -0.0 -0.0 -16.0 0.0 0.0 0:0.47862840825319286 1:0.7330146768689155 
-0.0 -0.0 -0.0 -16.0 0.0 0.0 0:0.47990352207422254 1:0.7275422555208206 
-0.0 -0.0 -0.0 -16.0 0.0 0.0 0:0.4813853483516723 1:0.7415741640329361 
-0.0 -0.0 -0.0 -0.0 16.0 0.0 0:0.5888578522205352 1:0.6903684662282467 
-0.0 -0.0 -0.0 -0.0 16.0 0.0 0:0.5875393409729004 1:0.7002841520309449 
-0.0 -0.0 -0.0 -0.0 16.0 0.0 0:0.5847339131236076 1:0.7000985750555992 
-0.0 -0.0 -0.0 -0.0 16.0 0.0 0:0.5888555456995964 1:0.7047866389155387 
-0.0 -0.0 -0.0 -0.0 16.0 0.0 0:0.5944117228388786 1:0.7168950599431991 
-0.0 -0.0 -0.0 -0.0 16.0 0.0 0:0.5951605474352837 1:0.7111815010011195 
-0.0 -0.0 -0.0 -0.0 16.0 0.0 0:0.5898174203336238 1:0.7199142754077911 
-0.0 -0.0 -0.0 -0.0 16.0 0.0 0:0.5955719373226166 1:0.7232672089338302 
-0.0 -0.0 -0.0 -0.0 16.0 0.0 0:0.5884023575782775 1:0.7160342106223107 
-0.0 -0.0 -0.0 -0.0 16.0 0.0 0:0.5875279908180236 1:0.7217457708716392 
-0.0 -0.0 -0.0 -0.0 16.0 0.0 0:0.5970376912876963 1:0.7241505649685859 
-0.0 -0.0 -0.0 -0.0 16.0 0.0 0:0.5943668189644813 1:0.7226553205866366 
-0.0 -0.0 -0.0 -0.0 16.0 16.0 0:0.5992073383927345 1:0.7282975387573242 
-0.0 -0.0 -0.0 -0.0 16.0 0.0 0:0.5915357154607772 1:0.7240175639092922 
-0.0 -0.0 -0.0 -0.0 16.0 16.0 0:0.6047541671991348 1:0.7185624399781226 
-0.0 -0.0 -0.0 -0.0 16.0 1.0339050511195336 0:0.5971619594842196 1:0.7195699244737626 
-0.0 -0.0 -0.0 -0.0 16.0 0.0 0:0.5945841884613037 1:0.7248011356592179 
-0.0 -0.0 -0.0 -0.0 16.0 16.0 0:0.5984376330673694 1:0.7223962666466832 
-0.0 -0.0 -0.0 -0.0 16.0 0.0 0:0.5851662020683288 1:0.7120739734172821 
-0.0 -0.0 -0.0 -0.0 16.0 0.0 0:0.5968103975653648 1:0.7212454500794411 
-0.0 -0.0 -0.0 -0.0 0.23195806315944462 0.0 0:0.5852329142093659 1:0.7163442537188529 
-0.0 -16.0 -0.0 -0.0 -0.0 0.0 0:0.7325478987246752 1:0.5688514667749405 
-0.0 -16.0 -0.0 -0.0 -0.0 0.0 0:0.7376607700586318 1:0.5668593025207519 
-0.0 -16.0 -0.0 -0.0 -0.0 0.0 0:0.7242731784135104 1:0.5691734012961387 
-0.0 -14.49539327340129 -0.0 -0.0 -0.0 0.0 0:0.7141371244192123 1:0.5742853323370218 
-0.0 -16.0 -0.0 -0.0 -0.0 0.0 0:0.7114061213806271 1:0.572831063568592 
-0.0 -16.0 -0.0 -0.0 -0.0 0.0 0:0.7023401510715485 1:0.5722007396817207 
-0.0 -16.0 -0.0 -0.0 -0.0 0.0 0:0.6976780822873115 1:0.5744504565745592 
-0.0 -16.0 -0.0 -0.0 -0.0 0.0 0:0.6912652877569199 1:0.5707872605323792 
-0.0 -16.0 -0.0 -0.0 -0.0 0.0 0:0.6935204129815101 1:0.5718877452611923 
-0.0 -16.0 -0.0 -0.0 -0.0 0.0 0:0.6816638721823691 1:0.5711768892407417 
-0.0 -16.0 -0.0 -0.0 -0.0 0.0 0:0.6875085028409958 1:0.5768678698688745 
-0.0 -16.0 -0.0 -0.0 -0.0 0.0 0:0.6826394243240357 1:0.5713170757889747 
-0.0 -16.0 -0.0 -0.0 -0.0 0.0 0:0.6735589976459742 1:0.5770828422904014 
-6.601915153431508 -16.0 -0.0 -0.0 -0.0 0.0 0:0.66427902841568 1:0.5791141670942306 
-0.0 -16.0 -0.0 -0.0 -0.0 0.0 0:0.67264648270607 1:0.5746866834163665 
-0.0 -0.0 -1.744967890915659 -10.76674848851555 -16.0 0.0 0:0.6559697197675706 1:0.5939732202142477 
-16.0 -6.31262459842891 -0.0 -0.0 -0.0 0.0 0:0.6604240587949753 1:0.5810797631740571 
-0.0 -0.0 -0.0 -0.0 -7.419296035778014 0.0 0:0.6577337536811829 1:0.5921988444030285 
-0.0 -0.0 -0.0 -0.0 -16.0 0.0 0:0.658879998087883 1:0.6047454327344894 
-0.0 -0.0 -0.0 -0.0 -0.0 16.0 0:0.7451503168940544 1:0.6650364944338798 
-0.0 -0.0 -0.0 -0.0 -0.0 16.0 0:0.7453601285219192 1:0.6725577127933502 
-0.0 -0.0 -0.0 -0.0 -0.0 16.0 0:0.757350953578949 1:0.6615967231988907 
-0.0 -0.0 -0.0 -0.0 -0.0 16.0 0:0.7487364188432694 1:0.6650146448612213 
-0.0 -0.0 -0.0 -0.0 -0.0 16.0 0:0.7487400378584862 1:0.6688304004073143 
-0.0 -0.0 -0.0 -0.0 -0.0 16.0 0:0.7436767171621322 1:0.6735767600685357 
-0.0 -0.0 -0.0 -0.0 -0.0 16.0 0:0.7463326791971922 1:0.6591194212436675 
-0.0 -0.0 -0.0 -0.0 -0.0 16.0 0:0.7521037927269936 1:0.6743073514103889 
-0.0 -0.0 -0.0 -0.0 -0.0 16.0 0:0.7515472936630249 1:0.6765332114696503 
-0.0 -0.0 -0.0 -0.0 -0.0 16.0 0:0.7476029228977858 1:0.6652902352809906 
-0.0 -0.0 -0.0 -0.0 -0.0 16.0 0:0.74725885393098 1:0.6700284790992737 
-0.0 -0.0 -0.0 -0.0 -0.0 16.0 0:0.7519710007309913 1:0.6835814625024795 
-0.0 -0.0 -0.0 -0.0 -0.0 16.0 0:0.750181892812252 1:0.6776145559549331 
-0.0 -0.0 -0.0 -0.0 -0.0 16.0 0:0.7502809971570968 1:0.6847213262319565 
-0.0 -0.0 -0.0 -0.0 -0.0 16.0 0:0.7472669544257223 1:0.6782903960347176 
-0.0 -0.0 -0.0 -0.0 -0.0 16.0 0:0.7462390464544296 1:0.682125256601721 
-0.0 -0.0 -0.0 -0.0 -0.0 16.0 0:0.7532745569944381 1:0.6852317532896995 
-0.0 -0.0 -0.0 -0.0 -0.0 16.0 0:0.758002736568451 1:0.6826201703399419 
-0.0 -0.0 -0.0 -0.0 -0.0 16.0 0:0.7490255439281464 1:0.6866345523949713 
-0.0 -0.0 -0.0 -0.0 -0.0 16.0 0:0.7530412060022355 1:0.6830452072620392 
-0.0 -0.0 -0.0 -0.0 -0.0 16.0 0:0.7500951063632965 1:0.6878739346563816 
-0.0 -0.0 -0.0 -0.0 -0.0 16.0 0:0.7537885689735413 1:0.6830928885936737 
-0.0 -0.0 -0.0 -0.0 -0.0 1.4944017451438485 0:0.7439338228106499 1:0.6882041889429092 
-0.0 -0.0 -0.0 -0.0 -0.0 16.0 0:0.7446130469441414 1:0.6949706538766623 
-0.0 -0.0 -0.0 -0.0 -0.0 16.0 0:0.7452193008363247 1:0.6930058649182319 
-0.0 -0.0 -0.0 -0.0 -0.0 16.0 0:0.7491336496174336 1:0.7021819189190864 
-0.0 -0.0 -0.0 -0.0 -0.0 16.0 0:0.7453354813158513 1:0.6956182938814164 
-0.0 -0.0 -0.0 -0.0 -0.0 16.0 0:0.7455828533172607 1:0.706657783985138 
-0.0 -0.0 -0.0 -0.0 -0.0 16.0 0:0.7460649660825729 1:0.7093447652459144 
-0.0 -0.0 -0.0 -0.0 -0.0 16.0 0:0.7473314745426178 1:0.7162402454018594 
-0.0 -0.0 -0.0 -0.0 -16.0 0.0 0:0.6681867049932481 1:0.7381800615787506 
-0.0 -0.0 -0.0 -0.0 -16.0 0.0 0:0.6682653455734253 1:0.7242431592941284 
-0.0 -0.0 -0.0 -0.0 -16.0 0.0 0:0.6711944006681443 1:0.727378142029047 
-0.0 -0.0 -0.0 -0.0 -16.0 0.0 0:0.6679716256856919 1:0.7203353422880173 
-0.0 -0.0 -0.0 -0.0 -16.0 0.0 0:0.6691398537755013 1:0.7275800754129886 
-0.0 -0.0 -0.0 -0.0 -16.0 0.0 0:0.6717659559063613 1:0.722447833120823 
-0.0 -0.0 -0.0 -0.0 -8.81266202738143 0.0 0:0.6725892526805402 1:0.7287621107697487 
-0.0 -0.0 -0.0 -0.0 -16.0 0.0 0:0.6683415941596031 1:0.7154392755031586 
-0.0 -0.0 -0.0 -0.0 -16.0 0.0 0:0.6700489968061447 1:0.7208826549351215 
-0.0 -0.0 -0.0 -0.0 -16.0 0.0 0:0.6663828800618649 1:0.7246010904014111 
-0.0 -0.0 -0.0 -0.0 -16.0 0.0 0:0.6674644592702389 1:0.7246287819743156 
-0.0 -0.0 -0.0 -6.864065174194379 -16.0 0.0 0:0.6609311706423759 1:0.7209544168750289 
-0.0 -0.0 -0.0 -0.0 -16.0 0.0 0:0.6619362880885601 1:0.731655592918396 
-0.0 -0.0 -0.0 -0.0 -16.0 0.0 0:0.6673274565339089 1:0.7111209398508073 
-0.0 -0.0 -0.0 -0.0 -16.0 0.0 0:0.6663057339787484 1:0.7174304494261742 
-0.0 -0.0 -10.175622096039849 -16.0 -16.0 0.0 0:0.6573724242448807 1:0.721605757623911 
-0.0 -0.0 -0.0 -0.0 -16.0 0.0 0:0.667579016327858 1:0.7211301155388355 
-0.0 -0.0 -0.0 -0.0 -16.0 0.0 0:0.6615208730087616 1:0.7304204499721527 
-0.0 -10.6285187171492 -0.0 -0.0 -0.0 -0.0 0:0.8244552239179611 1:0.5666153928637505 
-0.0 -9.799567947291658 -0.0 -0.0 -0.0 -0.0 0:0.8214247550368309 1:0.5703868298232555 
-0.0 -16.0 -0.0 -0.0 -0.0 -0.0 0:0.8173956761360168 1:0.5738041500747204 
-0.0 -16.0 -0.0 -0.0 -0.0 -0.0 0:0.8126329506635666 1:0.5746913903951645 
-11.408244035239544 -16.0 -0.0 -0.0 -0.0 -0.0 0:0.8111586542129516 1:0.575724778175354 
-0.0 -16.0 -0.0 -0.0 -0.0 -16.0 0:0.8103778666257858 1:0.5828822465240956 
-0.0 -16.0 -0.0 -0.0 -0.0 -16.0 0:0.8101923644542693 1:0.5782173335552215 
-0.0 -0.0 -0.0 -0.0 -0.0 -16.0 0:0.8120025968551635 1:0.602141489982605 
-0.0 -0.0 -0.0 -0.0 -0.0 -16.0 0:0.8112532802224158 1:0.6028540170192719 
-0.0 -0.0 -0.0 -0.0 -0.0 -16.0 0:0.8071865116357803 1:0.6071390265226364 
-0.0 -0.0 -0.0 -0.0 -0.0 -12.391647405824738 0:0.8125782434940337 1:0.6138922657072544 
-0.0 -0.0 -0.0 -0.0 -0.0 -16.0 0:0.8098861657381057 1:0.6174628865718842 
-0.0 -0.0 -0.0 -0.0 -0.0 -16.0 0:0.8163902467489242 1:0.7131644648313522 
-0.0 -0.0 -0.0 -0.0 -0.0 -5.102754339319108 0:0.8163493965566158 1:0.6994418513774872 
-0.0 -0.0 -0.0 -0.0 -0.0 -16.0 0:0.8109863555431366 1:0.7051023941487073 
-0.0 -0.0 -0.0 -0.0 -0.0 -16.0 0:0.8128404103517531 1:0.7082848241925239 
-0.0 -0.0 -0.0 -0.0 -0.0 -16.0 0:0.8156867083273828 1:0.7014836947619916 
-0.0 -0.0 -0.0 -0.0 -0.0 -16.0 0:0.8148535922765732 1:0.7065078595280647 
-0.0 -0.0 -0.0 -0.0 -0.0 -16.0 0:0.8130893753319978 1:0.7113218468427659 
-0.0 -0.0 -0.0 -0.0 -0.0 -16.0 0:0.8143985260128974 1:0.7057600642740727 
-0.0 -0.0 -0.0 -0.0 -0.0 -16.0 0:0.8061053838729858 1:0.7094194281101227 
-0.0 -0.0 -0.0 -0.0 -0.0 -16.0 0:0.8080662273764609 1:0.6939417845010758 
-0.0 -0.0 -0.0 -0.0 -0.0 -16.0 0:0.8103615339547396 1:0.6983408606052399 
-0.0 -0.0 -6.66288695879465 -13.859671900293035 -16.0 -16.0 0:0.7954541940689087 1:0.7068905675411224 
-0.0 -0.0 -0.0 -0.0 -0.0 -16.0 0:0.8078508242964745 1:0.705233502984047 
-0.0 -0.0 -0.0 -0.0 -0.0 -16.0 0:0.8064704985171557 1:0.7040007501840592 
-0.0 -0.0 -0.0 -0.0 -16.0 -16.0 0:0.8001377272605896 1:0.7019607651233674 
-0.0 -0.0 -0.0 -0.0 -16.0 -16.0 0:0.8006308734416963 1:0.6997226528078317 
-0.0 -0.0 -0.0 -0.0 -0.0 -16.0 0:0.8071425324976444 1:0.6988370701670646 
-0.0 -0.0 -0.0 -0.0 -0.0 -16.0 0:0.8049152316451074 1:0.7084340858459472 
-0.0 -0.0 -0.0 -0.0 -0.0 -16.0 0:0.8091375191807747 1:0.6961889946460723 
-0.0 -0.0 -0.0 -0.0 -1.0339050511195336 -16.0 0:0.8008688770532608 1:0.6977851563692092 
-0.0 -0.0 -0.0 -0.0 -0.0 -16.0 0:0.8031247493922711 1:0.7025616177916526 
-0.0 -0.0 -0.0 -0.0 -0.0 -16.0 0:0.809493417620659 1:0.7019194638729095 
-0.0 -0.0 -0.0 -0.0 -0.0 -16.0 0:0.8094785817265511 1:0.7063234257698059 
