svm_type c_svc
kernel_type linear
nr_class 3
total_sv 13
rho 2.3203372955322266 -4.655981459015376 -12.469346229279619
label 0 1 2
probA -3.943437779908669 -4.019848180903614 -3.8333253927946336
probB -0.1722857263116371 -0.0801530246998217 0.15118278042467329
nr_sv 4 6 3
SV
64.0 0.09544117836119369 0:0.4941176474094391 1:0.48235294222831726 2:0.40392157435417175 
64.0 0.0 0:0.4941176474094391 1:0.48235294222831726 2:0.4000000059604645 
64.0 64.0 0:0.4941176474094391 1:0.48235294222831726 2:0.40392157435417175 
0.0 3.7989800687032727E-5 0:0.501960813999176 1:0.48627451062202454 2:0.40392157435417175 
-64.0 0.0 0:0.4941176474094391 1:0.4000000059604645 2:0.4588235318660736 
-64.0 0.0 0:0.4941176474094391 1:0.4000000059604645 2:0.4588235318660736 
-64.0 0.0 0:0.4941176474094391 1:0.4000000059604645 2:0.4588235318660736 
-0.0 23.08615660612849 0:0.4941176474094391 1:0.3960784375667572 2:0.46666666865348816 
-0.0 64.0 0:0.4941176474094391 1:0.4000000059604645 2:0.46666666865348816 
-0.0 64.0 0:0.4941176474094391 1:0.3960784375667572 2:0.46666666865348816 
-0.0 -23.08615660612849 0:0.5176470875740051 1:0.43529412150382996 2:0.572549045085907 
-0.09547916816188205 -64.0 0:0.5176470875740051 1:0.43529412150382996 2:0.572549045085907 
-64.0 -64.0 0:0.5176470875740051 1:0.43529412150382996 2:0.572549045085907 
